digraph Tree {
node [shape=box] ;
0 [label="X[11] <= 9.63\nmse = 86.164\nsamples = 379\nvalue = 22.716"] ;
1 [label="X[11] <= 4.65\nmse = 80.418\nsamples = 160\nvalue = 30.019"] ;
0 -> 1 [labeldistance=2.5, labelangle=45, headlabel="True"] ;
2 [label="X[6] <= 3.207\nmse = 63.146\nsamples = 41\nvalue = 39.471"] ;
1 -> 2 ;
3 [label="X[10] <= 366.365\nmse = 9.029\nsamples = 9\nvalue = 48.456"] ;
2 -> 3 ;
4 [label="mse = 0.0\nsamples = 1\nvalue = 41.3"] ;
3 -> 4 ;
5 [label="X[5] <= 80.65\nmse = 2.957\nsamples = 8\nvalue = 49.35"] ;
3 -> 5 ;
6 [label="X[5] <= 65.95\nmse = 6.76\nsamples = 2\nvalue = 47.4"] ;
5 -> 6 ;
7 [label="mse = 0.0\nsamples = 1\nvalue = 50.0"] ;
6 -> 7 ;
8 [label="mse = 0.0\nsamples = 1\nvalue = 44.8"] ;
6 -> 8 ;
9 [label="mse = 0.0\nsamples = 6\nvalue = 50.0"] ;
5 -> 9 ;
10 [label="X[11] <= 3.99\nmse = 49.276\nsamples = 32\nvalue = 36.944"] ;
2 -> 10 ;
11 [label="X[9] <= 15.0\nmse = 48.705\nsamples = 20\nvalue = 39.775"] ;
10 -> 11 ;
12 [label="X[2] <= 1.62\nmse = 8.662\nsamples = 5\nvalue = 46.74"] ;
11 -> 12 ;
13 [label="mse = 0.0\nsamples = 2\nvalue = 50.0"] ;
12 -> 13 ;
14 [label="X[2] <= 2.68\nmse = 2.629\nsamples = 3\nvalue = 44.567"] ;
12 -> 14 ;
15 [label="mse = 0.0\nsamples = 1\nvalue = 42.3"] ;
14 -> 15 ;
16 [label="X[5] <= 57.1\nmse = 0.09\nsamples = 2\nvalue = 45.7"] ;
14 -> 16 ;
17 [label="mse = 0.0\nsamples = 1\nvalue = 46.0"] ;
16 -> 17 ;
18 [label="mse = -0.0\nsamples = 1\nvalue = 45.4"] ;
16 -> 18 ;
19 [label="X[10] <= 379.645\nmse = 40.492\nsamples = 15\nvalue = 37.453"] ;
11 -> 19 ;
20 [label="X[10] <= 378.23\nmse = 0.64\nsamples = 2\nvalue = 47.5"] ;
19 -> 20 ;
21 [label="mse = 0.0\nsamples = 1\nvalue = 46.7"] ;
20 -> 21 ;
22 [label="mse = 0.0\nsamples = 1\nvalue = 48.3"] ;
20 -> 22 ;
23 [label="X[7] <= 3.5\nmse = 28.705\nsamples = 13\nvalue = 35.908"] ;
19 -> 23 ;
24 [label="X[5] <= 25.0\nmse = 18.007\nsamples = 3\nvalue = 40.9"] ;
23 -> 24 ;
25 [label="mse = 0.0\nsamples = 1\nvalue = 34.9"] ;
24 -> 25 ;
26 [label="X[11] <= 3.34\nmse = 0.01\nsamples = 2\nvalue = 43.9"] ;
24 -> 26 ;
27 [label="mse = 0.0\nsamples = 1\nvalue = 44.0"] ;
26 -> 27 ;
28 [label="mse = -0.0\nsamples = 1\nvalue = 43.8"] ;
26 -> 28 ;
29 [label="X[0] <= 0.232\nmse = 22.195\nsamples = 10\nvalue = 34.41"] ;
23 -> 29 ;
30 [label="X[8] <= 364.0\nmse = 6.219\nsamples = 6\nvalue = 31.75"] ;
29 -> 30 ;
31 [label="X[5] <= 30.4\nmse = 2.274\nsamples = 5\nvalue = 30.82"] ;
30 -> 31 ;
32 [label="X[7] <= 5.5\nmse = 0.303\nsamples = 2\nvalue = 29.05"] ;
31 -> 32 ;
33 [label="mse = 0.0\nsamples = 1\nvalue = 28.5"] ;
32 -> 33 ;
34 [label="mse = 0.0\nsamples = 1\nvalue = 29.6"] ;
32 -> 34 ;
35 [label="X[10] <= 394.9\nmse = 0.107\nsamples = 3\nvalue = 32.0"] ;
31 -> 35 ;
36 [label="mse = 0.0\nsamples = 1\nvalue = 31.6"] ;
35 -> 36 ;
37 [label="X[6] <= 4.172\nmse = 0.04\nsamples = 2\nvalue = 32.2"] ;
35 -> 37 ;
38 [label="mse = 0.0\nsamples = 1\nvalue = 32.4"] ;
37 -> 38 ;
39 [label="mse = -0.0\nsamples = 1\nvalue = 32.0"] ;
37 -> 39 ;
40 [label="mse = 0.0\nsamples = 1\nvalue = 36.4"] ;
30 -> 40 ;
41 [label="X[10] <= 383.125\nmse = 19.625\nsamples = 4\nvalue = 38.4"] ;
29 -> 41 ;
42 [label="mse = 0.0\nsamples = 1\nvalue = 31.5"] ;
41 -> 42 ;
43 [label="X[5] <= 79.9\nmse = 5.007\nsamples = 3\nvalue = 40.7"] ;
41 -> 43 ;
44 [label="X[2] <= 6.03\nmse = 0.303\nsamples = 2\nvalue = 42.25"] ;
43 -> 44 ;
45 [label="mse = 0.0\nsamples = 1\nvalue = 42.8"] ;
44 -> 45 ;
46 [label="mse = 0.0\nsamples = 1\nvalue = 41.7"] ;
44 -> 46 ;
47 [label="mse = -0.0\nsamples = 1\nvalue = 37.6"] ;
43 -> 47 ;
48 [label="X[4] <= 0.514\nmse = 14.602\nsamples = 12\nvalue = 32.225"] ;
10 -> 48 ;
49 [label="X[1] <= 30.0\nmse = 7.12\nsamples = 11\nvalue = 33.082"] ;
48 -> 49 ;
50 [label="X[0] <= 0.079\nmse = 3.042\nsamples = 3\nvalue = 36.267"] ;
49 -> 50 ;
51 [label="X[10] <= 392.53\nmse = 0.123\nsamples = 2\nvalue = 35.05"] ;
50 -> 51 ;
52 [label="mse = 0.0\nsamples = 1\nvalue = 35.4"] ;
51 -> 52 ;
53 [label="mse = 0.0\nsamples = 1\nvalue = 34.7"] ;
51 -> 53 ;
54 [label="mse = 0.0\nsamples = 1\nvalue = 38.7"] ;
50 -> 54 ;
55 [label="X[10] <= 383.57\nmse = 3.419\nsamples = 8\nvalue = 31.888"] ;
49 -> 55 ;
56 [label="X[4] <= 0.419\nmse = 0.122\nsamples = 2\nvalue = 29.45"] ;
55 -> 56 ;
57 [label="mse = 0.0\nsamples = 1\nvalue = 29.1"] ;
56 -> 57 ;
58 [label="mse = -0.0\nsamples = 1\nvalue = 29.8"] ;
56 -> 58 ;
59 [label="X[0] <= 0.031\nmse = 1.877\nsamples = 6\nvalue = 32.7"] ;
55 -> 59 ;
60 [label="X[5] <= 17.85\nmse = 0.829\nsamples = 3\nvalue = 31.633"] ;
59 -> 60 ;
61 [label="mse = 0.0\nsamples = 1\nvalue = 32.9"] ;
60 -> 61 ;
62 [label="X[11] <= 4.465\nmse = 0.04\nsamples = 2\nvalue = 31.0"] ;
60 -> 62 ;
63 [label="mse = 0.0\nsamples = 1\nvalue = 30.8"] ;
62 -> 63 ;
64 [label="mse = -0.0\nsamples = 1\nvalue = 31.2"] ;
62 -> 64 ;
65 [label="X[4] <= 0.404\nmse = 0.649\nsamples = 3\nvalue = 33.767"] ;
59 -> 65 ;
66 [label="mse = 0.0\nsamples = 1\nvalue = 34.9"] ;
65 -> 66 ;
67 [label="X[8] <= 291.5\nmse = 0.01\nsamples = 2\nvalue = 33.2"] ;
65 -> 67 ;
68 [label="mse = 0.0\nsamples = 1\nvalue = 33.1"] ;
67 -> 68 ;
69 [label="mse = -0.0\nsamples = 1\nvalue = 33.3"] ;
67 -> 69 ;
70 [label="mse = -0.0\nsamples = 1\nvalue = 22.8"] ;
48 -> 70 ;
71 [label="X[4] <= 0.574\nmse = 44.988\nsamples = 119\nvalue = 26.763"] ;
1 -> 71 ;
72 [label="X[8] <= 222.5\nmse = 22.112\nsamples = 107\nvalue = 25.599"] ;
71 -> 72 ;
73 [label="X[0] <= 0.055\nmse = 10.995\nsamples = 11\nvalue = 33.245"] ;
72 -> 73 ;
74 [label="X[0] <= 0.025\nmse = 3.942\nsamples = 4\nvalue = 29.575"] ;
73 -> 74 ;
75 [label="mse = 0.0\nsamples = 1\nvalue = 33.0"] ;
74 -> 75 ;
76 [label="X[4] <= 0.465\nmse = 0.042\nsamples = 3\nvalue = 28.433"] ;
74 -> 76 ;
77 [label="mse = 0.0\nsamples = 1\nvalue = 28.7"] ;
76 -> 77 ;
78 [label="X[0] <= 0.052\nmse = 0.01\nsamples = 2\nvalue = 28.3"] ;
76 -> 78 ;
79 [label="mse = 0.0\nsamples = 1\nvalue = 28.2"] ;
78 -> 79 ;
80 [label="mse = 0.0\nsamples = 1\nvalue = 28.4"] ;
78 -> 80 ;
81 [label="X[5] <= 93.9\nmse = 2.928\nsamples = 7\nvalue = 35.343"] ;
73 -> 81 ;
82 [label="X[7] <= 4.0\nmse = 1.845\nsamples = 6\nvalue = 35.817"] ;
81 -> 82 ;
83 [label="X[10] <= 395.51\nmse = 0.642\nsamples = 3\nvalue = 36.767"] ;
82 -> 83 ;
84 [label="mse = 0.0\nsamples = 1\nvalue = 37.9"] ;
83 -> 84 ;
85 [label="X[0] <= 0.069\nmse = 0.0\nsamples = 2\nvalue = 36.2"] ;
83 -> 85 ;
86 [label="mse = 0.0\nsamples = 1\nvalue = 36.2"] ;
85 -> 86 ;
87 [label="mse = 0.0\nsamples = 1\nvalue = 36.2"] ;
85 -> 87 ;
88 [label="X[5] <= 56.5\nmse = 1.242\nsamples = 3\nvalue = 34.867"] ;
82 -> 88 ;
89 [label="X[2] <= 2.755\nmse = 0.25\nsamples = 2\nvalue = 35.6"] ;
88 -> 89 ;
90 [label="mse = 0.0\nsamples = 1\nvalue = 36.1"] ;
89 -> 90 ;
91 [label="mse = 0.0\nsamples = 1\nvalue = 35.1"] ;
89 -> 91 ;
92 [label="mse = -0.0\nsamples = 1\nvalue = 33.4"] ;
88 -> 92 ;
93 [label="mse = -0.0\nsamples = 1\nvalue = 32.5"] ;
81 -> 93 ;
94 [label="X[11] <= 7.195\nmse = 15.919\nsamples = 96\nvalue = 24.723"] ;
72 -> 94 ;
95 [label="X[3] <= 0.5\nmse = 13.491\nsamples = 49\nvalue = 26.331"] ;
94 -> 95 ;
96 [label="X[9] <= 16.25\nmse = 11.275\nsamples = 47\nvalue = 25.996"] ;
95 -> 96 ;
97 [label="X[6] <= 6.546\nmse = 20.262\nsamples = 9\nvalue = 29.0"] ;
96 -> 97 ;
98 [label="X[10] <= 383.695\nmse = 7.946\nsamples = 5\nvalue = 32.24"] ;
97 -> 98 ;
99 [label="mse = 0.0\nsamples = 1\nvalue = 37.0"] ;
98 -> 99 ;
100 [label="X[6] <= 5.726\nmse = 2.853\nsamples = 4\nvalue = 31.05"] ;
98 -> 100 ;
101 [label="X[5] <= 29.4\nmse = 0.303\nsamples = 2\nvalue = 32.55"] ;
100 -> 101 ;
102 [label="mse = 0.0\nsamples = 1\nvalue = 33.1"] ;
101 -> 102 ;
103 [label="mse = 0.0\nsamples = 1\nvalue = 32.0"] ;
101 -> 103 ;
104 [label="X[2] <= 8.68\nmse = 0.903\nsamples = 2\nvalue = 29.55"] ;
100 -> 104 ;
105 [label="mse = 0.0\nsamples = 1\nvalue = 30.5"] ;
104 -> 105 ;
106 [label="mse = 0.0\nsamples = 1\nvalue = 28.6"] ;
104 -> 106 ;
107 [label="X[5] <= 13.9\nmse = 6.133\nsamples = 4\nvalue = 24.95"] ;
97 -> 107 ;
108 [label="mse = 0.0\nsamples = 1\nvalue = 29.0"] ;
107 -> 108 ;
109 [label="X[5] <= 33.75\nmse = 0.887\nsamples = 3\nvalue = 23.6"] ;
107 -> 109 ;
110 [label="X[7] <= 4.5\nmse = 0.25\nsamples = 2\nvalue = 23.0"] ;
109 -> 110 ;
111 [label="mse = 0.0\nsamples = 1\nvalue = 23.5"] ;
110 -> 111 ;
112 [label="mse = 0.0\nsamples = 1\nvalue = 22.5"] ;
110 -> 112 ;
113 [label="mse = 0.0\nsamples = 1\nvalue = 24.8"] ;
109 -> 113 ;
114 [label="X[6] <= 4.2\nmse = 6.503\nsamples = 38\nvalue = 25.284"] ;
96 -> 114 ;
115 [label="X[10] <= 393.275\nmse = 8.081\nsamples = 11\nvalue = 27.791"] ;
114 -> 115 ;
116 [label="X[8] <= 301.5\nmse = 1.522\nsamples = 5\nvalue = 30.16"] ;
115 -> 116 ;
117 [label="X[0] <= 0.094\nmse = 0.389\nsamples = 3\nvalue = 29.233"] ;
116 -> 117 ;
118 [label="X[0] <= 0.067\nmse = 0.063\nsamples = 2\nvalue = 29.65"] ;
117 -> 118 ;
119 [label="mse = 0.0\nsamples = 1\nvalue = 29.9"] ;
118 -> 119 ;
120 [label="mse = 0.0\nsamples = 1\nvalue = 29.4"] ;
118 -> 120 ;
121 [label="mse = 0.0\nsamples = 1\nvalue = 28.4"] ;
117 -> 121 ;
122 [label="X[5] <= 75.75\nmse = 0.003\nsamples = 2\nvalue = 31.55"] ;
116 -> 122 ;
123 [label="mse = 0.0\nsamples = 1\nvalue = 31.5"] ;
122 -> 123 ;
124 [label="mse = -0.0\nsamples = 1\nvalue = 31.6"] ;
122 -> 124 ;
125 [label="X[5] <= 68.25\nmse = 4.971\nsamples = 6\nvalue = 25.817"] ;
115 -> 125 ;
126 [label="X[8] <= 262.0\nmse = 0.04\nsamples = 2\nvalue = 28.9"] ;
125 -> 126 ;
127 [label="mse = 0.0\nsamples = 1\nvalue = 29.1"] ;
126 -> 127 ;
128 [label="mse = 0.0\nsamples = 1\nvalue = 28.7"] ;
126 -> 128 ;
129 [label="X[5] <= 81.65\nmse = 0.307\nsamples = 4\nvalue = 24.275"] ;
125 -> 129 ;
130 [label="X[7] <= 14.5\nmse = 0.04\nsamples = 2\nvalue = 24.8"] ;
129 -> 130 ;
131 [label="mse = 0.0\nsamples = 1\nvalue = 24.6"] ;
130 -> 131 ;
132 [label="mse = 0.0\nsamples = 1\nvalue = 25.0"] ;
130 -> 132 ;
133 [label="X[7] <= 1.5\nmse = 0.023\nsamples = 2\nvalue = 23.75"] ;
129 -> 133 ;
134 [label="mse = 0.0\nsamples = 1\nvalue = 23.9"] ;
133 -> 134 ;
135 [label="mse = 0.0\nsamples = 1\nvalue = 23.6"] ;
133 -> 135 ;
136 [label="X[11] <= 4.96\nmse = 2.257\nsamples = 27\nvalue = 24.263"] ;
114 -> 136 ;
137 [label="X[2] <= 5.93\nmse = 0.423\nsamples = 2\nvalue = 27.25"] ;
136 -> 137 ;
138 [label="mse = 0.0\nsamples = 1\nvalue = 27.9"] ;
137 -> 138 ;
139 [label="mse = 0.0\nsamples = 1\nvalue = 26.6"] ;
137 -> 139 ;
140 [label="X[6] <= 4.468\nmse = 1.633\nsamples = 25\nvalue = 24.024"] ;
136 -> 140 ;
141 [label="X[10] <= 393.61\nmse = 1.047\nsamples = 3\nvalue = 25.3"] ;
140 -> 141 ;
142 [label="mse = 0.0\nsamples = 1\nvalue = 26.6"] ;
141 -> 142 ;
143 [label="X[1] <= 10.0\nmse = 0.302\nsamples = 2\nvalue = 24.65"] ;
141 -> 143 ;
144 [label="mse = 0.0\nsamples = 1\nvalue = 24.1"] ;
143 -> 144 ;
145 [label="mse = 0.0\nsamples = 1\nvalue = 25.2"] ;
143 -> 145 ;
146 [label="X[5] <= 37.0\nmse = 1.461\nsamples = 22\nvalue = 23.85"] ;
140 -> 146 ;
147 [label="X[2] <= 1.47\nmse = 1.378\nsamples = 18\nvalue = 24.083"] ;
146 -> 147 ;
148 [label="X[5] <= 35.1\nmse = 0.903\nsamples = 2\nvalue = 25.65"] ;
147 -> 148 ;
149 [label="mse = 0.0\nsamples = 1\nvalue = 26.6"] ;
148 -> 149 ;
150 [label="mse = 0.0\nsamples = 1\nvalue = 24.7"] ;
148 -> 150 ;
151 [label="X[4] <= 0.398\nmse = 1.092\nsamples = 16\nvalue = 23.888"] ;
147 -> 151 ;
152 [label="mse = 0.0\nsamples = 1\nvalue = 21.9"] ;
151 -> 152 ;
153 [label="X[9] <= 19.15\nmse = 0.884\nsamples = 15\nvalue = 24.02"] ;
151 -> 153 ;
154 [label="X[0] <= 0.141\nmse = 0.88\nsamples = 9\nvalue = 24.367"] ;
153 -> 154 ;
155 [label="X[8] <= 287.0\nmse = 0.371\nsamples = 7\nvalue = 23.971"] ;
154 -> 155 ;
156 [label="X[11] <= 6.355\nmse = 0.023\nsamples = 2\nvalue = 24.65"] ;
155 -> 156 ;
157 [label="mse = 0.0\nsamples = 1\nvalue = 24.5"] ;
156 -> 157 ;
158 [label="mse = 0.0\nsamples = 1\nvalue = 24.8"] ;
156 -> 158 ;
159 [label="X[11] <= 6.13\nmse = 0.252\nsamples = 5\nvalue = 23.7"] ;
155 -> 159 ;
160 [label="X[11] <= 5.34\nmse = 0.082\nsamples = 3\nvalue = 24.067"] ;
159 -> 160 ;
161 [label="mse = 0.0\nsamples = 1\nvalue = 23.7"] ;
160 -> 161 ;
162 [label="X[1] <= 41.0\nmse = 0.023\nsamples = 2\nvalue = 24.25"] ;
160 -> 162 ;
163 [label="mse = 0.0\nsamples = 1\nvalue = 24.4"] ;
162 -> 163 ;
164 [label="mse = 0.0\nsamples = 1\nvalue = 24.1"] ;
162 -> 164 ;
165 [label="X[11] <= 6.75\nmse = 0.003\nsamples = 2\nvalue = 23.15"] ;
159 -> 165 ;
166 [label="mse = 0.0\nsamples = 1\nvalue = 23.1"] ;
165 -> 166 ;
167 [label="mse = 0.0\nsamples = 1\nvalue = 23.2"] ;
165 -> 167 ;
168 [label="X[7] <= 5.0\nmse = 0.202\nsamples = 2\nvalue = 25.75"] ;
154 -> 168 ;
169 [label="mse = 0.0\nsamples = 1\nvalue = 25.3"] ;
168 -> 169 ;
170 [label="mse = 0.0\nsamples = 1\nvalue = 26.2"] ;
168 -> 170 ;
171 [label="X[11] <= 5.3\nmse = 0.44\nsamples = 6\nvalue = 23.5"] ;
153 -> 171 ;
172 [label="mse = 0.0\nsamples = 1\nvalue = 24.6"] ;
171 -> 172 ;
173 [label="X[0] <= 0.09\nmse = 0.238\nsamples = 5\nvalue = 23.28"] ;
171 -> 173 ;
174 [label="mse = 0.0\nsamples = 1\nvalue = 24.2"] ;
173 -> 174 ;
175 [label="X[10] <= 390.795\nmse = 0.033\nsamples = 4\nvalue = 23.05"] ;
173 -> 175 ;
176 [label="X[1] <= 12.5\nmse = 0.01\nsamples = 2\nvalue = 23.2"] ;
175 -> 176 ;
177 [label="mse = 0.0\nsamples = 1\nvalue = 23.1"] ;
176 -> 177 ;
178 [label="mse = -0.0\nsamples = 1\nvalue = 23.3"] ;
176 -> 178 ;
179 [label="X[5] <= 18.35\nmse = 0.01\nsamples = 2\nvalue = 22.9"] ;
175 -> 179 ;
180 [label="mse = 0.0\nsamples = 1\nvalue = 22.8"] ;
179 -> 180 ;
181 [label="mse = 0.0\nsamples = 1\nvalue = 23.0"] ;
179 -> 181 ;
182 [label="X[1] <= 47.5\nmse = 0.485\nsamples = 4\nvalue = 22.8"] ;
146 -> 182 ;
183 [label="X[1] <= 32.5\nmse = 0.109\nsamples = 3\nvalue = 22.433"] ;
182 -> 183 ;
184 [label="mse = 0.0\nsamples = 2\nvalue = 22.2"] ;
183 -> 184 ;
185 [label="mse = 0.0\nsamples = 1\nvalue = 22.9"] ;
183 -> 185 ;
186 [label="mse = -0.0\nsamples = 1\nvalue = 23.9"] ;
182 -> 186 ;
187 [label="X[2] <= 6.685\nmse = 1.0\nsamples = 2\nvalue = 34.2"] ;
95 -> 187 ;
188 [label="mse = 0.0\nsamples = 1\nvalue = 33.2"] ;
187 -> 188 ;
189 [label="mse = 0.0\nsamples = 1\nvalue = 35.2"] ;
187 -> 189 ;
190 [label="X[9] <= 20.95\nmse = 12.945\nsamples = 47\nvalue = 23.047"] ;
94 -> 190 ;
191 [label="X[10] <= 367.455\nmse = 10.064\nsamples = 43\nvalue = 23.553"] ;
190 -> 191 ;
192 [label="X[9] <= 15.0\nmse = 0.423\nsamples = 2\nvalue = 29.65"] ;
191 -> 192 ;
193 [label="mse = 0.0\nsamples = 1\nvalue = 30.3"] ;
192 -> 193 ;
194 [label="mse = 0.0\nsamples = 1\nvalue = 29.0"] ;
192 -> 194 ;
195 [label="X[1] <= 86.25\nmse = 8.633\nsamples = 41\nvalue = 23.256"] ;
191 -> 195 ;
196 [label="X[0] <= 0.088\nmse = 6.799\nsamples = 40\nvalue = 23.032"] ;
195 -> 196 ;
197 [label="X[2] <= 1.96\nmse = 3.809\nsamples = 19\nvalue = 21.5"] ;
196 -> 197 ;
198 [label="X[10] <= 391.145\nmse = 1.103\nsamples = 2\nvalue = 17.55"] ;
197 -> 198 ;
199 [label="mse = 0.0\nsamples = 1\nvalue = 16.5"] ;
198 -> 199 ;
200 [label="mse = 0.0\nsamples = 1\nvalue = 18.6"] ;
198 -> 200 ;
201 [label="X[7] <= 4.5\nmse = 2.076\nsamples = 17\nvalue = 21.965"] ;
197 -> 201 ;
202 [label="X[6] <= 6.384\nmse = 1.227\nsamples = 12\nvalue = 22.567"] ;
201 -> 202 ;
203 [label="X[10] <= 393.66\nmse = 0.574\nsamples = 7\nvalue = 23.143"] ;
202 -> 203 ;
204 [label="X[6] <= 3.092\nmse = 0.107\nsamples = 4\nvalue = 22.525"] ;
203 -> 204 ;
205 [label="mse = 0.0\nsamples = 1\nvalue = 22.0"] ;
204 -> 205 ;
206 [label="X[6] <= 5.308\nmse = 0.02\nsamples = 3\nvalue = 22.7"] ;
204 -> 206 ;
207 [label="X[6] <= 4.153\nmse = 0.0\nsamples = 2\nvalue = 22.6"] ;
206 -> 207 ;
208 [label="mse = 0.0\nsamples = 1\nvalue = 22.6"] ;
207 -> 208 ;
209 [label="mse = 0.0\nsamples = 1\nvalue = 22.6"] ;
207 -> 209 ;
210 [label="mse = 0.0\nsamples = 1\nvalue = 22.9"] ;
206 -> 210 ;
211 [label="X[2] <= 3.26\nmse = 0.009\nsamples = 3\nvalue = 23.967"] ;
203 -> 211 ;
212 [label="mse = 0.0\nsamples = 1\nvalue = 24.1"] ;
211 -> 212 ;
213 [label="mse = -0.0\nsamples = 2\nvalue = 23.9"] ;
211 -> 213 ;
214 [label="X[11] <= 8.84\nmse = 1.026\nsamples = 5\nvalue = 21.76"] ;
202 -> 214 ;
215 [label="X[8] <= 271.5\nmse = 0.436\nsamples = 3\nvalue = 22.467"] ;
214 -> 215 ;
216 [label="mse = 0.0\nsamples = 1\nvalue = 23.4"] ;
215 -> 216 ;
217 [label="mse = -0.0\nsamples = 2\nvalue = 22.0"] ;
215 -> 217 ;
218 [label="X[5] <= 41.05\nmse = 0.04\nsamples = 2\nvalue = 20.7"] ;
214 -> 218 ;
219 [label="mse = 0.0\nsamples = 1\nvalue = 20.9"] ;
218 -> 219 ;
220 [label="mse = 0.0\nsamples = 1\nvalue = 20.5"] ;
218 -> 220 ;
221 [label="X[5] <= 50.0\nmse = 1.158\nsamples = 5\nvalue = 20.52"] ;
201 -> 221 ;
222 [label="X[1] <= 17.0\nmse = 0.412\nsamples = 4\nvalue = 20.975"] ;
221 -> 222 ;
223 [label="X[5] <= 39.4\nmse = 0.082\nsamples = 3\nvalue = 20.633"] ;
222 -> 223 ;
224 [label="X[4] <= 0.476\nmse = 0.023\nsamples = 2\nvalue = 20.45"] ;
223 -> 224 ;
225 [label="mse = 0.0\nsamples = 1\nvalue = 20.3"] ;
224 -> 225 ;
226 [label="mse = -0.0\nsamples = 1\nvalue = 20.6"] ;
224 -> 226 ;
227 [label="mse = 0.0\nsamples = 1\nvalue = 21.0"] ;
223 -> 227 ;
228 [label="mse = 0.0\nsamples = 1\nvalue = 22.0"] ;
222 -> 228 ;
229 [label="mse = -0.0\nsamples = 1\nvalue = 18.7"] ;
221 -> 229 ;
230 [label="X[6] <= 4.325\nmse = 5.456\nsamples = 21\nvalue = 24.419"] ;
196 -> 230 ;
231 [label="X[10] <= 396.295\nmse = 5.398\nsamples = 11\nvalue = 25.4"] ;
230 -> 231 ;
232 [label="X[5] <= 81.35\nmse = 3.508\nsamples = 10\nvalue = 24.93"] ;
231 -> 232 ;
233 [label="X[0] <= 0.173\nmse = 2.308\nsamples = 7\nvalue = 25.757"] ;
232 -> 233 ;
234 [label="X[8] <= 250.0\nmse = 1.977\nsamples = 4\nvalue = 26.625"] ;
233 -> 234 ;
235 [label="mse = 0.0\nsamples = 1\nvalue = 24.4"] ;
234 -> 235 ;
236 [label="X[10] <= 395.17\nmse = 0.436\nsamples = 3\nvalue = 27.367"] ;
234 -> 236 ;
237 [label="X[11] <= 9.4\nmse = 0.09\nsamples = 2\nvalue = 27.8"] ;
236 -> 237 ;
238 [label="mse = 0.0\nsamples = 1\nvalue = 28.1"] ;
237 -> 238 ;
239 [label="mse = 0.0\nsamples = 1\nvalue = 27.5"] ;
237 -> 239 ;
240 [label="mse = 0.0\nsamples = 1\nvalue = 26.5"] ;
236 -> 240 ;
241 [label="X[2] <= 14.345\nmse = 0.407\nsamples = 3\nvalue = 24.6"] ;
233 -> 241 ;
242 [label="X[4] <= 0.498\nmse = 0.003\nsamples = 2\nvalue = 25.05"] ;
241 -> 242 ;
243 [label="mse = 0.0\nsamples = 1\nvalue = 25.0"] ;
242 -> 243 ;
244 [label="mse = 0.0\nsamples = 1\nvalue = 25.1"] ;
242 -> 244 ;
245 [label="mse = -0.0\nsamples = 1\nvalue = 23.7"] ;
241 -> 245 ;
246 [label="X[5] <= 83.45\nmse = 0.987\nsamples = 3\nvalue = 23.0"] ;
232 -> 246 ;
247 [label="mse = 0.0\nsamples = 1\nvalue = 21.6"] ;
246 -> 247 ;
248 [label="X[7] <= 4.5\nmse = 0.01\nsamples = 2\nvalue = 23.7"] ;
246 -> 248 ;
249 [label="mse = 0.0\nsamples = 1\nvalue = 23.8"] ;
248 -> 249 ;
250 [label="mse = -0.0\nsamples = 1\nvalue = 23.6"] ;
248 -> 250 ;
251 [label="mse = -0.0\nsamples = 1\nvalue = 30.1"] ;
231 -> 251 ;
252 [label="X[7] <= 6.5\nmse = 3.296\nsamples = 10\nvalue = 23.34"] ;
230 -> 252 ;
253 [label="X[11] <= 7.62\nmse = 1.797\nsamples = 6\nvalue = 22.2"] ;
252 -> 253 ;
254 [label="X[11] <= 7.285\nmse = 0.047\nsamples = 3\nvalue = 23.5"] ;
253 -> 254 ;
255 [label="mse = 0.0\nsamples = 1\nvalue = 23.8"] ;
254 -> 255 ;
256 [label="X[1] <= 15.0\nmse = 0.002\nsamples = 2\nvalue = 23.35"] ;
254 -> 256 ;
257 [label="mse = 0.0\nsamples = 1\nvalue = 23.4"] ;
256 -> 257 ;
258 [label="mse = -0.0\nsamples = 1\nvalue = 23.3"] ;
256 -> 258 ;
259 [label="X[4] <= 0.465\nmse = 0.167\nsamples = 3\nvalue = 20.9"] ;
253 -> 259 ;
260 [label="X[9] <= 18.8\nmse = 0.062\nsamples = 2\nvalue = 21.15"] ;
259 -> 260 ;
261 [label="mse = 0.0\nsamples = 1\nvalue = 21.4"] ;
260 -> 261 ;
262 [label="mse = 0.0\nsamples = 1\nvalue = 20.9"] ;
260 -> 262 ;
263 [label="mse = 0.0\nsamples = 1\nvalue = 20.4"] ;
259 -> 263 ;
264 [label="X[6] <= 6.659\nmse = 0.673\nsamples = 4\nvalue = 25.05"] ;
252 -> 264 ;
265 [label="mse = 0.0\nsamples = 1\nvalue = 26.4"] ;
264 -> 265 ;
266 [label="X[0] <= 0.145\nmse = 0.087\nsamples = 3\nvalue = 24.6"] ;
264 -> 266 ;
267 [label="mse = 0.0\nsamples = 1\nvalue = 25.0"] ;
266 -> 267 ;
268 [label="X[0] <= 0.252\nmse = 0.01\nsamples = 2\nvalue = 24.4"] ;
266 -> 268 ;
269 [label="mse = 0.0\nsamples = 1\nvalue = 24.5"] ;
268 -> 269 ;
270 [label="mse = 0.0\nsamples = 1\nvalue = 24.3"] ;
268 -> 270 ;
271 [label="mse = -0.0\nsamples = 1\nvalue = 32.2"] ;
195 -> 271 ;
272 [label="X[11] <= 7.965\nmse = 11.495\nsamples = 4\nvalue = 17.6"] ;
190 -> 272 ;
273 [label="mse = 0.0\nsamples = 1\nvalue = 11.9"] ;
272 -> 273 ;
274 [label="X[4] <= 0.475\nmse = 0.887\nsamples = 3\nvalue = 19.5"] ;
272 -> 274 ;
275 [label="mse = 0.0\nsamples = 1\nvalue = 18.2"] ;
274 -> 275 ;
276 [label="X[10] <= 396.26\nmse = 0.062\nsamples = 2\nvalue = 20.15"] ;
274 -> 276 ;
277 [label="mse = 0.0\nsamples = 1\nvalue = 19.9"] ;
276 -> 277 ;
278 [label="mse = -0.0\nsamples = 1\nvalue = 20.4"] ;
276 -> 278 ;
279 [label="X[2] <= 18.84\nmse = 129.174\nsamples = 12\nvalue = 37.142"] ;
71 -> 279 ;
280 [label="X[4] <= 0.693\nmse = 104.451\nsamples = 9\nvalue = 41.233"] ;
279 -> 280 ;
281 [label="X[10] <= 390.815\nmse = 64.945\nsamples = 8\nvalue = 43.65"] ;
280 -> 281 ;
282 [label="X[0] <= 0.564\nmse = 24.613\nsamples = 6\nvalue = 47.55"] ;
281 -> 282 ;
283 [label="X[10] <= 387.375\nmse = 37.822\nsamples = 2\nvalue = 42.65"] ;
282 -> 283 ;
284 [label="mse = 0.0\nsamples = 1\nvalue = 48.8"] ;
283 -> 284 ;
285 [label="mse = 0.0\nsamples = 1\nvalue = 36.5"] ;
283 -> 285 ;
286 [label="mse = 0.0\nsamples = 4\nvalue = 50.0"] ;
282 -> 286 ;
287 [label="X[0] <= 0.598\nmse = 3.422\nsamples = 2\nvalue = 31.95"] ;
281 -> 287 ;
288 [label="mse = 0.0\nsamples = 1\nvalue = 33.8"] ;
287 -> 288 ;
289 [label="mse = -0.0\nsamples = 1\nvalue = 30.1"] ;
287 -> 289 ;
290 [label="mse = 0.0\nsamples = 1\nvalue = 21.9"] ;
280 -> 290 ;
291 [label="X[3] <= 0.5\nmse = 2.442\nsamples = 3\nvalue = 24.867"] ;
279 -> 291 ;
292 [label="X[0] <= 1.384\nmse = 0.25\nsamples = 2\nvalue = 23.8"] ;
291 -> 292 ;
293 [label="mse = 0.0\nsamples = 1\nvalue = 24.3"] ;
292 -> 293 ;
294 [label="mse = 0.0\nsamples = 1\nvalue = 23.3"] ;
292 -> 294 ;
295 [label="mse = -0.0\nsamples = 1\nvalue = 27.0"] ;
291 -> 295 ;
296 [label="X[6] <= 2.075\nmse = 22.928\nsamples = 219\nvalue = 17.381"] ;
0 -> 296 [labeldistance=2.5, labelangle=-45, headlabel="False"] ;
297 [label="X[11] <= 19.85\nmse = 20.311\nsamples = 75\nvalue = 13.391"] ;
296 -> 297 ;
298 [label="X[11] <= 14.31\nmse = 20.18\nsamples = 32\nvalue = 16.263"] ;
297 -> 298 ;
299 [label="X[6] <= 1.301\nmse = 16.555\nsamples = 9\nvalue = 19.978"] ;
298 -> 299 ;
300 [label="mse = 0.0\nsamples = 1\nvalue = 27.9"] ;
299 -> 300 ;
301 [label="X[6] <= 1.614\nmse = 9.799\nsamples = 8\nvalue = 18.988"] ;
299 -> 301 ;
302 [label="X[7] <= 14.5\nmse = 3.812\nsamples = 4\nvalue = 16.225"] ;
301 -> 302 ;
303 [label="X[5] <= 94.0\nmse = 4.622\nsamples = 2\nvalue = 17.45"] ;
302 -> 303 ;
304 [label="mse = 0.0\nsamples = 1\nvalue = 15.3"] ;
303 -> 304 ;
305 [label="mse = -0.0\nsamples = 1\nvalue = 19.6"] ;
303 -> 305 ;
306 [label="mse = -0.0\nsamples = 2\nvalue = 15.0"] ;
302 -> 306 ;
307 [label="X[8] <= 333.5\nmse = 0.523\nsamples = 4\nvalue = 21.75"] ;
301 -> 307 ;
308 [label="mse = 0.0\nsamples = 1\nvalue = 22.8"] ;
307 -> 308 ;
309 [label="X[5] <= 89.5\nmse = 0.207\nsamples = 3\nvalue = 21.4"] ;
307 -> 309 ;
310 [label="mse = 0.0\nsamples = 1\nvalue = 20.8"] ;
309 -> 310 ;
311 [label="X[9] <= 17.45\nmse = 0.04\nsamples = 2\nvalue = 21.7"] ;
309 -> 311 ;
312 [label="mse = 0.0\nsamples = 1\nvalue = 21.5"] ;
311 -> 312 ;
313 [label="mse = -0.0\nsamples = 1\nvalue = 21.9"] ;
311 -> 313 ;
314 [label="X[11] <= 19.775\nmse = 14.083\nsamples = 23\nvalue = 14.809"] ;
298 -> 314 ;
315 [label="X[0] <= 11.667\nmse = 7.069\nsamples = 22\nvalue = 14.232"] ;
314 -> 315 ;
316 [label="X[6] <= 1.743\nmse = 2.759\nsamples = 17\nvalue = 15.376"] ;
315 -> 316 ;
317 [label="X[6] <= 1.701\nmse = 0.08\nsamples = 3\nvalue = 12.9"] ;
316 -> 317 ;
318 [label="mse = 0.0\nsamples = 1\nvalue = 12.5"] ;
317 -> 318 ;
319 [label="mse = -0.0\nsamples = 2\nvalue = 13.1"] ;
317 -> 319 ;
320 [label="X[0] <= 5.977\nmse = 1.738\nsamples = 14\nvalue = 15.907"] ;
316 -> 320 ;
321 [label="X[0] <= 0.291\nmse = 0.848\nsamples = 7\nvalue = 16.871"] ;
320 -> 321 ;
322 [label="X[2] <= 24.815\nmse = 0.25\nsamples = 2\nvalue = 15.7"] ;
321 -> 322 ;
323 [label="mse = 0.0\nsamples = 1\nvalue = 16.2"] ;
322 -> 323 ;
324 [label="mse = 0.0\nsamples = 1\nvalue = 15.2"] ;
322 -> 324 ;
325 [label="X[10] <= 394.885\nmse = 0.318\nsamples = 5\nvalue = 17.34"] ;
321 -> 325 ;
326 [label="X[11] <= 16.01\nmse = 0.047\nsamples = 4\nvalue = 17.075"] ;
325 -> 326 ;
327 [label="X[2] <= 18.84\nmse = 0.016\nsamples = 3\nvalue = 16.967"] ;
326 -> 327 ;
328 [label="mse = 0.0\nsamples = 1\nvalue = 16.8"] ;
327 -> 328 ;
329 [label="X[5] <= 97.2\nmse = 0.002\nsamples = 2\nvalue = 17.05"] ;
327 -> 329 ;
330 [label="mse = 0.0\nsamples = 1\nvalue = 17.0"] ;
329 -> 330 ;
331 [label="mse = 0.0\nsamples = 1\nvalue = 17.1"] ;
329 -> 331 ;
332 [label="mse = -0.0\nsamples = 1\nvalue = 17.4"] ;
326 -> 332 ;
333 [label="mse = -0.0\nsamples = 1\nvalue = 18.4"] ;
325 -> 333 ;
334 [label="X[11] <= 15.095\nmse = 0.768\nsamples = 7\nvalue = 14.943"] ;
320 -> 334 ;
335 [label="mse = 0.0\nsamples = 1\nvalue = 16.7"] ;
334 -> 335 ;
336 [label="X[5] <= 95.85\nmse = 0.296\nsamples = 6\nvalue = 14.65"] ;
334 -> 336 ;
337 [label="X[10] <= 358.44\nmse = 0.082\nsamples = 3\nvalue = 14.167"] ;
336 -> 337 ;
338 [label="X[5] <= 90.7\nmse = 0.023\nsamples = 2\nvalue = 14.35"] ;
337 -> 338 ;
339 [label="mse = 0.0\nsamples = 1\nvalue = 14.5"] ;
338 -> 339 ;
340 [label="mse = 0.0\nsamples = 1\nvalue = 14.2"] ;
338 -> 340 ;
341 [label="mse = 0.0\nsamples = 1\nvalue = 13.8"] ;
337 -> 341 ;
342 [label="X[0] <= 8.464\nmse = 0.042\nsamples = 3\nvalue = 15.133"] ;
336 -> 342 ;
343 [label="X[0] <= 6.625\nmse = 0.01\nsamples = 2\nvalue = 15.0"] ;
342 -> 343 ;
344 [label="mse = 0.0\nsamples = 1\nvalue = 14.9"] ;
343 -> 344 ;
345 [label="mse = -0.0\nsamples = 1\nvalue = 15.1"] ;
343 -> 345 ;
346 [label="mse = 0.0\nsamples = 1\nvalue = 15.4"] ;
342 -> 346 ;
347 [label="X[11] <= 17.2\nmse = 2.122\nsamples = 5\nvalue = 10.34"] ;
315 -> 347 ;
348 [label="X[6] <= 1.822\nmse = 1.109\nsamples = 3\nvalue = 11.267"] ;
347 -> 348 ;
349 [label="mse = 0.0\nsamples = 1\nvalue = 12.7"] ;
348 -> 349 ;
350 [label="X[11] <= 15.105\nmse = 0.123\nsamples = 2\nvalue = 10.55"] ;
348 -> 350 ;
351 [label="mse = 0.0\nsamples = 1\nvalue = 10.9"] ;
350 -> 351 ;
352 [label="mse = -0.0\nsamples = 1\nvalue = 10.2"] ;
350 -> 352 ;
353 [label="X[10] <= 212.195\nmse = 0.423\nsamples = 2\nvalue = 8.95"] ;
347 -> 353 ;
354 [label="mse = 0.0\nsamples = 1\nvalue = 9.6"] ;
353 -> 354 ;
355 [label="mse = 0.0\nsamples = 1\nvalue = 8.3"] ;
353 -> 355 ;
356 [label="mse = 0.0\nsamples = 1\nvalue = 27.5"] ;
314 -> 356 ;
357 [label="X[4] <= 0.603\nmse = 9.703\nsamples = 43\nvalue = 11.253"] ;
297 -> 357 ;
358 [label="X[11] <= 20.65\nmse = 0.322\nsamples = 4\nvalue = 17.15"] ;
357 -> 358 ;
359 [label="mse = 0.0\nsamples = 1\nvalue = 16.3"] ;
358 -> 359 ;
360 [label="X[11] <= 30.385\nmse = 0.109\nsamples = 3\nvalue = 17.433"] ;
358 -> 360 ;
361 [label="mse = 0.0\nsamples = 2\nvalue = 17.2"] ;
360 -> 361 ;
362 [label="mse = 0.0\nsamples = 1\nvalue = 17.9"] ;
360 -> 362 ;
363 [label="X[8] <= 551.5\nmse = 6.734\nsamples = 39\nvalue = 10.649"] ;
357 -> 363 ;
364 [label="X[6] <= 1.383\nmse = 1.048\nsamples = 7\nvalue = 13.729"] ;
363 -> 364 ;
365 [label="X[11] <= 28.055\nmse = 0.64\nsamples = 2\nvalue = 12.6"] ;
364 -> 365 ;
366 [label="mse = 0.0\nsamples = 1\nvalue = 13.4"] ;
365 -> 366 ;
367 [label="mse = -0.0\nsamples = 1\nvalue = 11.8"] ;
365 -> 367 ;
368 [label="X[0] <= 2.557\nmse = 0.498\nsamples = 5\nvalue = 14.18"] ;
364 -> 368 ;
369 [label="X[6] <= 1.64\nmse = 0.157\nsamples = 4\nvalue = 13.875"] ;
368 -> 369 ;
370 [label="X[10] <= 392.49\nmse = 0.062\nsamples = 3\nvalue = 14.067"] ;
369 -> 370 ;
371 [label="X[5] <= 96.8\nmse = 0.01\nsamples = 2\nvalue = 13.9"] ;
370 -> 371 ;
372 [label="mse = 0.0\nsamples = 1\nvalue = 14.0"] ;
371 -> 372 ;
373 [label="mse = 0.0\nsamples = 1\nvalue = 13.8"] ;
371 -> 373 ;
374 [label="mse = 0.0\nsamples = 1\nvalue = 14.4"] ;
370 -> 374 ;
375 [label="mse = 0.0\nsamples = 1\nvalue = 13.3"] ;
369 -> 375 ;
376 [label="mse = 0.0\nsamples = 1\nvalue = 15.4"] ;
368 -> 376 ;
377 [label="X[6] <= 1.406\nmse = 5.449\nsamples = 32\nvalue = 9.975"] ;
363 -> 377 ;
378 [label="X[4] <= 0.663\nmse = 0.637\nsamples = 4\nvalue = 13.175"] ;
377 -> 378 ;
379 [label="mse = 0.0\nsamples = 1\nvalue = 11.9"] ;
378 -> 379 ;
380 [label="X[0] <= 19.468\nmse = 0.127\nsamples = 3\nvalue = 13.6"] ;
378 -> 380 ;
381 [label="X[4] <= 0.669\nmse = 0.003\nsamples = 2\nvalue = 13.85"] ;
380 -> 381 ;
382 [label="mse = 0.0\nsamples = 1\nvalue = 13.8"] ;
381 -> 382 ;
383 [label="mse = -0.0\nsamples = 1\nvalue = 13.9"] ;
381 -> 383 ;
384 [label="mse = -0.0\nsamples = 1\nvalue = 13.1"] ;
380 -> 384 ;
385 [label="X[11] <= 25.735\nmse = 4.464\nsamples = 28\nvalue = 9.518"] ;
377 -> 385 ;
386 [label="X[4] <= 0.612\nmse = 3.397\nsamples = 18\nvalue = 10.389"] ;
385 -> 386 ;
387 [label="mse = 0.0\nsamples = 1\nvalue = 7.0"] ;
386 -> 387 ;
388 [label="X[0] <= 11.125\nmse = 2.881\nsamples = 17\nvalue = 10.588"] ;
386 -> 388 ;
389 [label="X[11] <= 20.115\nmse = 1.962\nsamples = 10\nvalue = 11.42"] ;
388 -> 389 ;
390 [label="mse = 0.0\nsamples = 1\nvalue = 8.5"] ;
389 -> 390 ;
391 [label="X[0] <= 7.209\nmse = 1.127\nsamples = 9\nvalue = 11.744"] ;
389 -> 391 ;
392 [label="mse = 0.0\nsamples = 1\nvalue = 13.4"] ;
391 -> 392 ;
393 [label="X[4] <= 0.686\nmse = 0.882\nsamples = 8\nvalue = 11.538"] ;
391 -> 393 ;
394 [label="X[11] <= 22.8\nmse = 0.562\nsamples = 2\nvalue = 10.25"] ;
393 -> 394 ;
395 [label="mse = 0.0\nsamples = 1\nvalue = 11.0"] ;
394 -> 395 ;
396 [label="mse = 0.0\nsamples = 1\nvalue = 9.5"] ;
394 -> 396 ;
397 [label="X[5] <= 94.35\nmse = 0.252\nsamples = 6\nvalue = 11.967"] ;
393 -> 397 ;
398 [label="mse = 0.0\nsamples = 1\nvalue = 12.8"] ;
397 -> 398 ;
399 [label="X[0] <= 8.072\nmse = 0.136\nsamples = 5\nvalue = 11.8"] ;
397 -> 399 ;
400 [label="mse = 0.0\nsamples = 1\nvalue = 12.3"] ;
399 -> 400 ;
401 [label="X[0] <= 9.391\nmse = 0.092\nsamples = 4\nvalue = 11.675"] ;
399 -> 401 ;
402 [label="X[11] <= 22.225\nmse = 0.01\nsamples = 2\nvalue = 11.4"] ;
401 -> 402 ;
403 [label="mse = 0.0\nsamples = 1\nvalue = 11.5"] ;
402 -> 403 ;
404 [label="mse = -0.0\nsamples = 1\nvalue = 11.3"] ;
402 -> 404 ;
405 [label="X[0] <= 10.134\nmse = 0.022\nsamples = 2\nvalue = 11.95"] ;
401 -> 405 ;
406 [label="mse = 0.0\nsamples = 1\nvalue = 12.1"] ;
405 -> 406 ;
407 [label="mse = 0.0\nsamples = 1\nvalue = 11.8"] ;
405 -> 407 ;
408 [label="X[5] <= 99.55\nmse = 1.794\nsamples = 7\nvalue = 9.4"] ;
388 -> 408 ;
409 [label="X[10] <= 144.485\nmse = 1.152\nsamples = 6\nvalue = 9.767"] ;
408 -> 409 ;
410 [label="X[10] <= 28.065\nmse = 0.002\nsamples = 2\nvalue = 8.35"] ;
409 -> 410 ;
411 [label="mse = 0.0\nsamples = 1\nvalue = 8.3"] ;
410 -> 411 ;
412 [label="mse = -0.0\nsamples = 1\nvalue = 8.4"] ;
410 -> 412 ;
413 [label="X[11] <= 24.735\nmse = 0.222\nsamples = 4\nvalue = 10.475"] ;
409 -> 413 ;
414 [label="X[0] <= 18.963\nmse = 0.029\nsamples = 3\nvalue = 10.733"] ;
413 -> 414 ;
415 [label="X[6] <= 1.707\nmse = 0.002\nsamples = 2\nvalue = 10.85"] ;
414 -> 415 ;
416 [label="mse = 0.0\nsamples = 1\nvalue = 10.9"] ;
415 -> 416 ;
417 [label="mse = -0.0\nsamples = 1\nvalue = 10.8"] ;
415 -> 417 ;
418 [label="mse = 0.0\nsamples = 1\nvalue = 10.5"] ;
414 -> 418 ;
419 [label="mse = -0.0\nsamples = 1\nvalue = 9.7"] ;
413 -> 419 ;
420 [label="mse = -0.0\nsamples = 1\nvalue = 7.2"] ;
408 -> 420 ;
421 [label="X[4] <= 0.697\nmse = 2.563\nsamples = 10\nvalue = 7.95"] ;
385 -> 421 ;
422 [label="X[10] <= 328.295\nmse = 1.166\nsamples = 5\nvalue = 6.82"] ;
421 -> 422 ;
423 [label="X[8] <= 688.5\nmse = 0.14\nsamples = 3\nvalue = 7.6"] ;
422 -> 423 ;
424 [label="X[11] <= 27.42\nmse = 0.022\nsamples = 2\nvalue = 7.35"] ;
423 -> 424 ;
425 [label="mse = 0.0\nsamples = 1\nvalue = 7.5"] ;
424 -> 425 ;
426 [label="mse = 0.0\nsamples = 1\nvalue = 7.2"] ;
424 -> 426 ;
427 [label="mse = -0.0\nsamples = 1\nvalue = 8.1"] ;
423 -> 427 ;
428 [label="X[11] <= 30.28\nmse = 0.422\nsamples = 2\nvalue = 5.65"] ;
422 -> 428 ;
429 [label="mse = 0.0\nsamples = 1\nvalue = 6.3"] ;
428 -> 429 ;
430 [label="mse = -0.0\nsamples = 1\nvalue = 5.0"] ;
428 -> 430 ;
431 [label="X[11] <= 30.72\nmse = 1.406\nsamples = 5\nvalue = 9.08"] ;
421 -> 431 ;
432 [label="X[10] <= 329.375\nmse = 0.652\nsamples = 4\nvalue = 9.55"] ;
431 -> 432 ;
433 [label="X[4] <= 0.72\nmse = 0.002\nsamples = 2\nvalue = 8.75"] ;
432 -> 433 ;
434 [label="mse = 0.0\nsamples = 1\nvalue = 8.8"] ;
433 -> 434 ;
435 [label="mse = 0.0\nsamples = 1\nvalue = 8.7"] ;
433 -> 435 ;
436 [label="X[11] <= 29.45\nmse = 0.022\nsamples = 2\nvalue = 10.35"] ;
432 -> 436 ;
437 [label="mse = 0.0\nsamples = 1\nvalue = 10.5"] ;
436 -> 437 ;
438 [label="mse = 0.0\nsamples = 1\nvalue = 10.2"] ;
436 -> 438 ;
439 [label="mse = -0.0\nsamples = 1\nvalue = 7.2"] ;
431 -> 439 ;
440 [label="X[9] <= 18.75\nmse = 11.68\nsamples = 144\nvalue = 19.459"] ;
296 -> 440 ;
441 [label="X[6] <= 5.625\nmse = 9.767\nsamples = 60\nvalue = 21.367"] ;
440 -> 441 ;
442 [label="X[6] <= 2.089\nmse = 7.585\nsamples = 46\nvalue = 22.096"] ;
441 -> 442 ;
443 [label="mse = 0.0\nsamples = 1\nvalue = 31.0"] ;
442 -> 443 ;
444 [label="X[11] <= 9.95\nmse = 5.953\nsamples = 45\nvalue = 21.898"] ;
442 -> 444 ;
445 [label="X[6] <= 2.987\nmse = 6.962\nsamples = 3\nvalue = 26.267"] ;
444 -> 445 ;
446 [label="mse = 0.0\nsamples = 1\nvalue = 22.6"] ;
445 -> 446 ;
447 [label="X[0] <= 0.347\nmse = 0.36\nsamples = 2\nvalue = 28.1"] ;
445 -> 447 ;
448 [label="mse = 0.0\nsamples = 1\nvalue = 28.7"] ;
447 -> 448 ;
449 [label="mse = -0.0\nsamples = 1\nvalue = 27.5"] ;
447 -> 449 ;
450 [label="X[10] <= 396.11\nmse = 4.42\nsamples = 42\nvalue = 21.586"] ;
444 -> 450 ;
451 [label="X[8] <= 354.5\nmse = 4.01\nsamples = 30\nvalue = 22.09"] ;
450 -> 451 ;
452 [label="X[8] <= 208.0\nmse = 2.322\nsamples = 19\nvalue = 22.842"] ;
451 -> 452 ;
453 [label="mse = 0.0\nsamples = 1\nvalue = 26.4"] ;
452 -> 453 ;
454 [label="X[5] <= 68.85\nmse = 1.709\nsamples = 18\nvalue = 22.644"] ;
452 -> 454 ;
455 [label="X[6] <= 4.391\nmse = 0.989\nsamples = 13\nvalue = 23.154"] ;
454 -> 455 ;
456 [label="X[6] <= 3.662\nmse = 0.429\nsamples = 9\nvalue = 23.644"] ;
455 -> 456 ;
457 [label="X[10] <= 383.845\nmse = 0.251\nsamples = 6\nvalue = 23.283"] ;
456 -> 457 ;
458 [label="X[7] <= 6.0\nmse = 0.022\nsamples = 2\nvalue = 23.85"] ;
457 -> 458 ;
459 [label="mse = 0.0\nsamples = 1\nvalue = 23.7"] ;
458 -> 459 ;
460 [label="mse = -0.0\nsamples = 1\nvalue = 24.0"] ;
458 -> 460 ;
461 [label="X[4] <= 0.499\nmse = 0.125\nsamples = 4\nvalue = 23.0"] ;
457 -> 461 ;
462 [label="mse = 0.0\nsamples = 1\nvalue = 22.4"] ;
461 -> 462 ;
463 [label="X[9] <= 16.5\nmse = 0.007\nsamples = 3\nvalue = 23.2"] ;
461 -> 463 ;
464 [label="mse = 0.0\nsamples = 1\nvalue = 23.3"] ;
463 -> 464 ;
465 [label="X[0] <= 0.236\nmse = 0.003\nsamples = 2\nvalue = 23.15"] ;
463 -> 465 ;
466 [label="mse = 0.0\nsamples = 1\nvalue = 23.2"] ;
465 -> 466 ;
467 [label="mse = 0.0\nsamples = 1\nvalue = 23.1"] ;
465 -> 467 ;
468 [label="X[6] <= 3.955\nmse = 0.002\nsamples = 3\nvalue = 24.367"] ;
456 -> 468 ;
469 [label="mse = 0.0\nsamples = 1\nvalue = 24.3"] ;
468 -> 469 ;
470 [label="mse = 0.0\nsamples = 2\nvalue = 24.4"] ;
468 -> 470 ;
471 [label="X[10] <= 393.05\nmse = 0.487\nsamples = 4\nvalue = 22.05"] ;
455 -> 471 ;
472 [label="X[10] <= 389.575\nmse = 0.09\nsamples = 2\nvalue = 21.4"] ;
471 -> 472 ;
473 [label="mse = 0.0\nsamples = 1\nvalue = 21.1"] ;
472 -> 473 ;
474 [label="mse = 0.0\nsamples = 1\nvalue = 21.7"] ;
472 -> 474 ;
475 [label="X[6] <= 4.994\nmse = 0.04\nsamples = 2\nvalue = 22.7"] ;
471 -> 475 ;
476 [label="mse = 0.0\nsamples = 1\nvalue = 22.5"] ;
475 -> 476 ;
477 [label="mse = -0.0\nsamples = 1\nvalue = 22.9"] ;
475 -> 477 ;
478 [label="X[11] <= 22.72\nmse = 1.154\nsamples = 5\nvalue = 21.32"] ;
454 -> 478 ;
479 [label="X[10] <= 390.63\nmse = 0.167\nsamples = 4\nvalue = 21.825"] ;
478 -> 479 ;
480 [label="mse = 0.0\nsamples = 1\nvalue = 22.5"] ;
479 -> 480 ;
481 [label="X[11] <= 14.305\nmse = 0.02\nsamples = 3\nvalue = 21.6"] ;
479 -> 481 ;
482 [label="mse = 0.0\nsamples = 1\nvalue = 21.4"] ;
481 -> 482 ;
483 [label="mse = -0.0\nsamples = 2\nvalue = 21.7"] ;
481 -> 483 ;
484 [label="mse = 0.0\nsamples = 1\nvalue = 19.3"] ;
478 -> 484 ;
485 [label="X[0] <= 1.504\nmse = 4.261\nsamples = 11\nvalue = 20.791"] ;
451 -> 485 ;
486 [label="X[5] <= 82.1\nmse = 2.425\nsamples = 8\nvalue = 19.85"] ;
485 -> 486 ;
487 [label="X[10] <= 390.995\nmse = 1.438\nsamples = 5\nvalue = 20.74"] ;
486 -> 487 ;
488 [label="X[11] <= 12.155\nmse = 0.472\nsamples = 4\nvalue = 20.225"] ;
487 -> 488 ;
489 [label="X[10] <= 378.05\nmse = 0.123\nsamples = 2\nvalue = 19.65"] ;
488 -> 489 ;
490 [label="mse = 0.0\nsamples = 1\nvalue = 20.0"] ;
489 -> 490 ;
491 [label="mse = 0.0\nsamples = 1\nvalue = 19.3"] ;
489 -> 491 ;
492 [label="X[2] <= 11.42\nmse = 0.16\nsamples = 2\nvalue = 20.8"] ;
488 -> 492 ;
493 [label="mse = 0.0\nsamples = 1\nvalue = 20.4"] ;
492 -> 493 ;
494 [label="mse = 0.0\nsamples = 1\nvalue = 21.2"] ;
492 -> 494 ;
495 [label="mse = -0.0\nsamples = 1\nvalue = 22.8"] ;
487 -> 495 ;
496 [label="X[11] <= 12.44\nmse = 0.549\nsamples = 3\nvalue = 18.367"] ;
486 -> 496 ;
497 [label="X[11] <= 10.375\nmse = 0.123\nsamples = 2\nvalue = 18.85"] ;
496 -> 497 ;
498 [label="mse = 0.0\nsamples = 1\nvalue = 19.2"] ;
497 -> 498 ;
499 [label="mse = -0.0\nsamples = 1\nvalue = 18.5"] ;
497 -> 499 ;
500 [label="mse = 0.0\nsamples = 1\nvalue = 17.4"] ;
496 -> 500 ;
501 [label="X[10] <= 313.565\nmse = 0.5\nsamples = 3\nvalue = 23.3"] ;
485 -> 501 ;
502 [label="mse = -0.0\nsamples = 2\nvalue = 23.8"] ;
501 -> 502 ;
503 [label="mse = 0.0\nsamples = 1\nvalue = 22.3"] ;
501 -> 503 ;
504 [label="X[0] <= 0.155\nmse = 3.219\nsamples = 12\nvalue = 20.325"] ;
450 -> 504 ;
505 [label="X[0] <= 0.124\nmse = 0.764\nsamples = 5\nvalue = 21.9"] ;
504 -> 505 ;
506 [label="X[9] <= 17.3\nmse = 0.229\nsamples = 3\nvalue = 21.267"] ;
505 -> 506 ;
507 [label="X[11] <= 14.16\nmse = 0.01\nsamples = 2\nvalue = 21.6"] ;
506 -> 507 ;
508 [label="mse = 0.0\nsamples = 1\nvalue = 21.7"] ;
507 -> 508 ;
509 [label="mse = -0.0\nsamples = 1\nvalue = 21.5"] ;
507 -> 509 ;
510 [label="mse = -0.0\nsamples = 1\nvalue = 20.6"] ;
506 -> 510 ;
511 [label="X[0] <= 0.138\nmse = 0.062\nsamples = 2\nvalue = 22.85"] ;
505 -> 511 ;
512 [label="mse = 0.0\nsamples = 1\nvalue = 22.6"] ;
511 -> 512 ;
513 [label="mse = 0.0\nsamples = 1\nvalue = 23.1"] ;
511 -> 513 ;
514 [label="X[5] <= 74.7\nmse = 1.934\nsamples = 7\nvalue = 19.2"] ;
504 -> 514 ;
515 [label="X[6] <= 4.017\nmse = 0.382\nsamples = 4\nvalue = 20.025"] ;
514 -> 515 ;
516 [label="mse = 0.0\nsamples = 1\nvalue = 21.0"] ;
515 -> 516 ;
517 [label="X[0] <= 0.18\nmse = 0.087\nsamples = 3\nvalue = 19.7"] ;
515 -> 517 ;
518 [label="mse = 0.0\nsamples = 1\nvalue = 19.3"] ;
517 -> 518 ;
519 [label="X[5] <= 52.5\nmse = 0.01\nsamples = 2\nvalue = 19.9"] ;
517 -> 519 ;
520 [label="mse = 0.0\nsamples = 1\nvalue = 20.0"] ;
519 -> 520 ;
521 [label="mse = 0.0\nsamples = 1\nvalue = 19.8"] ;
519 -> 521 ;
522 [label="X[6] <= 3.39\nmse = 1.887\nsamples = 3\nvalue = 18.1"] ;
514 -> 522 ;
523 [label="X[5] <= 92.9\nmse = 0.123\nsamples = 2\nvalue = 19.05"] ;
522 -> 523 ;
524 [label="mse = 0.0\nsamples = 1\nvalue = 19.4"] ;
523 -> 524 ;
525 [label="mse = 0.0\nsamples = 1\nvalue = 18.7"] ;
523 -> 525 ;
526 [label="mse = -0.0\nsamples = 1\nvalue = 16.2"] ;
522 -> 526 ;
527 [label="X[0] <= 0.191\nmse = 9.453\nsamples = 14\nvalue = 18.971"] ;
441 -> 527 ;
528 [label="X[6] <= 6.089\nmse = 7.234\nsamples = 9\nvalue = 20.411"] ;
527 -> 528 ;
529 [label="mse = 0.0\nsamples = 1\nvalue = 27.1"] ;
528 -> 529 ;
530 [label="X[8] <= 302.0\nmse = 1.847\nsamples = 8\nvalue = 19.575"] ;
528 -> 530 ;
531 [label="X[7] <= 5.0\nmse = 0.927\nsamples = 4\nvalue = 20.575"] ;
530 -> 531 ;
532 [label="X[4] <= 0.438\nmse = 0.062\nsamples = 3\nvalue = 20.033"] ;
531 -> 532 ;
533 [label="X[1] <= 40.0\nmse = 0.01\nsamples = 2\nvalue = 20.2"] ;
532 -> 533 ;
534 [label="mse = 0.0\nsamples = 1\nvalue = 20.3"] ;
533 -> 534 ;
535 [label="mse = -0.0\nsamples = 1\nvalue = 20.1"] ;
533 -> 535 ;
536 [label="mse = 0.0\nsamples = 1\nvalue = 19.7"] ;
532 -> 536 ;
537 [label="mse = -0.0\nsamples = 1\nvalue = 22.2"] ;
531 -> 537 ;
538 [label="X[6] <= 6.626\nmse = 0.767\nsamples = 4\nvalue = 18.575"] ;
530 -> 538 ;
539 [label="X[1] <= 46.25\nmse = 0.056\nsamples = 3\nvalue = 19.067"] ;
538 -> 539 ;
540 [label="mse = 0.0\nsamples = 2\nvalue = 18.9"] ;
539 -> 540 ;
541 [label="mse = -0.0\nsamples = 1\nvalue = 19.4"] ;
539 -> 541 ;
542 [label="mse = 0.0\nsamples = 1\nvalue = 17.1"] ;
538 -> 542 ;
543 [label="X[11] <= 17.5\nmse = 3.002\nsamples = 5\nvalue = 16.38"] ;
527 -> 543 ;
544 [label="mse = 0.0\nsamples = 1\nvalue = 19.4"] ;
543 -> 544 ;
545 [label="X[11] <= 30.37\nmse = 0.902\nsamples = 4\nvalue = 15.625"] ;
543 -> 545 ;
546 [label="X[6] <= 6.214\nmse = 0.536\nsamples = 3\nvalue = 16.033"] ;
545 -> 546 ;
547 [label="X[8] <= 272.0\nmse = 0.002\nsamples = 2\nvalue = 16.55"] ;
546 -> 547 ;
548 [label="mse = 0.0\nsamples = 1\nvalue = 16.6"] ;
547 -> 548 ;
549 [label="mse = 0.0\nsamples = 1\nvalue = 16.5"] ;
547 -> 549 ;
550 [label="mse = 0.0\nsamples = 1\nvalue = 15.0"] ;
546 -> 550 ;
551 [label="mse = 0.0\nsamples = 1\nvalue = 14.4"] ;
545 -> 551 ;
552 [label="X[11] <= 15.065\nmse = 8.59\nsamples = 84\nvalue = 18.096"] ;
440 -> 552 ;
553 [label="X[2] <= 8.35\nmse = 3.787\nsamples = 50\nvalue = 19.568"] ;
552 -> 553 ;
554 [label="X[5] <= 89.75\nmse = 2.796\nsamples = 21\nvalue = 18.448"] ;
553 -> 554 ;
555 [label="X[9] <= 19.0\nmse = 1.746\nsamples = 17\nvalue = 18.935"] ;
554 -> 555 ;
556 [label="X[4] <= 0.426\nmse = 0.01\nsamples = 2\nvalue = 17.3"] ;
555 -> 556 ;
557 [label="mse = 0.0\nsamples = 1\nvalue = 17.4"] ;
556 -> 557 ;
558 [label="mse = 0.0\nsamples = 1\nvalue = 17.2"] ;
556 -> 558 ;
559 [label="X[5] <= 44.55\nmse = 1.573\nsamples = 15\nvalue = 19.153"] ;
555 -> 559 ;
560 [label="mse = 0.0\nsamples = 1\nvalue = 22.2"] ;
559 -> 560 ;
561 [label="X[0] <= 0.927\nmse = 0.975\nsamples = 14\nvalue = 18.936"] ;
559 -> 561 ;
562 [label="X[6] <= 8.005\nmse = 0.697\nsamples = 13\nvalue = 18.777"] ;
561 -> 562 ;
563 [label="X[6] <= 4.135\nmse = 0.487\nsamples = 12\nvalue = 18.633"] ;
562 -> 563 ;
564 [label="X[11] <= 11.345\nmse = 0.472\nsamples = 4\nvalue = 19.175"] ;
563 -> 564 ;
565 [label="X[0] <= 0.395\nmse = 0.123\nsamples = 2\nvalue = 18.55"] ;
564 -> 565 ;
566 [label="mse = 0.0\nsamples = 1\nvalue = 18.9"] ;
565 -> 566 ;
567 [label="mse = 0.0\nsamples = 1\nvalue = 18.2"] ;
565 -> 567 ;
568 [label="X[0] <= 0.475\nmse = 0.04\nsamples = 2\nvalue = 19.8"] ;
564 -> 568 ;
569 [label="mse = 0.0\nsamples = 1\nvalue = 20.0"] ;
568 -> 569 ;
570 [label="mse = 0.0\nsamples = 1\nvalue = 19.6"] ;
568 -> 570 ;
571 [label="X[10] <= 388.94\nmse = 0.275\nsamples = 8\nvalue = 18.362"] ;
563 -> 571 ;
572 [label="X[11] <= 11.38\nmse = 0.096\nsamples = 3\nvalue = 17.767"] ;
571 -> 572 ;
573 [label="mse = 0.0\nsamples = 1\nvalue = 18.2"] ;
572 -> 573 ;
574 [label="X[2] <= 7.0\nmse = 0.002\nsamples = 2\nvalue = 17.55"] ;
572 -> 574 ;
575 [label="mse = 0.0\nsamples = 1\nvalue = 17.6"] ;
574 -> 575 ;
576 [label="mse = -0.0\nsamples = 1\nvalue = 17.5"] ;
574 -> 576 ;
577 [label="X[5] <= 53.6\nmse = 0.042\nsamples = 5\nvalue = 18.72"] ;
571 -> 577 ;
578 [label="X[4] <= 0.462\nmse = 0.002\nsamples = 2\nvalue = 18.95"] ;
577 -> 578 ;
579 [label="mse = 0.0\nsamples = 1\nvalue = 18.9"] ;
578 -> 579 ;
580 [label="mse = 0.0\nsamples = 1\nvalue = 19.0"] ;
578 -> 580 ;
581 [label="X[1] <= 12.5\nmse = 0.009\nsamples = 3\nvalue = 18.567"] ;
577 -> 581 ;
582 [label="mse = 0.0\nsamples = 2\nvalue = 18.5"] ;
581 -> 582 ;
583 [label="mse = -0.0\nsamples = 1\nvalue = 18.7"] ;
581 -> 583 ;
584 [label="mse = -0.0\nsamples = 1\nvalue = 20.5"] ;
562 -> 584 ;
585 [label="mse = 0.0\nsamples = 1\nvalue = 21.0"] ;
561 -> 585 ;
586 [label="X[11] <= 12.92\nmse = 1.952\nsamples = 4\nvalue = 16.375"] ;
554 -> 586 ;
587 [label="mse = 0.0\nsamples = 1\nvalue = 18.4"] ;
586 -> 587 ;
588 [label="X[0] <= 1.013\nmse = 0.78\nsamples = 3\nvalue = 15.7"] ;
586 -> 588 ;
589 [label="X[11] <= 14.625\nmse = 0.09\nsamples = 2\nvalue = 16.3"] ;
588 -> 589 ;
590 [label="mse = 0.0\nsamples = 1\nvalue = 16.0"] ;
589 -> 590 ;
591 [label="mse = 0.0\nsamples = 1\nvalue = 16.6"] ;
589 -> 591 ;
592 [label="mse = 0.0\nsamples = 1\nvalue = 14.5"] ;
588 -> 592 ;
593 [label="X[5] <= 70.15\nmse = 2.937\nsamples = 29\nvalue = 20.379"] ;
553 -> 593 ;
594 [label="X[4] <= 0.582\nmse = 0.393\nsamples = 9\nvalue = 21.622"] ;
593 -> 594 ;
595 [label="X[8] <= 525.0\nmse = 0.285\nsamples = 4\nvalue = 22.1"] ;
594 -> 595 ;
596 [label="X[4] <= 0.55\nmse = 0.02\nsamples = 3\nvalue = 21.8"] ;
595 -> 596 ;
597 [label="mse = -0.0\nsamples = 2\nvalue = 21.7"] ;
596 -> 597 ;
598 [label="mse = 0.0\nsamples = 1\nvalue = 22.0"] ;
596 -> 598 ;
599 [label="mse = 0.0\nsamples = 1\nvalue = 23.0"] ;
595 -> 599 ;
600 [label="X[10] <= 379.675\nmse = 0.15\nsamples = 5\nvalue = 21.24"] ;
594 -> 600 ;
601 [label="mse = 0.0\nsamples = 1\nvalue = 20.6"] ;
600 -> 601 ;
602 [label="X[0] <= 0.206\nmse = 0.06\nsamples = 4\nvalue = 21.4"] ;
600 -> 602 ;
603 [label="mse = 0.0\nsamples = 1\nvalue = 21.8"] ;
602 -> 603 ;
604 [label="X[11] <= 13.07\nmse = 0.009\nsamples = 3\nvalue = 21.267"] ;
602 -> 604 ;
605 [label="mse = 0.0\nsamples = 2\nvalue = 21.2"] ;
604 -> 605 ;
606 [label="mse = 0.0\nsamples = 1\nvalue = 21.4"] ;
604 -> 606 ;
607 [label="X[5] <= 74.9\nmse = 3.074\nsamples = 20\nvalue = 19.82"] ;
593 -> 607 ;
608 [label="X[0] <= 3.356\nmse = 1.21\nsamples = 2\nvalue = 17.2"] ;
607 -> 608 ;
609 [label="mse = 0.0\nsamples = 1\nvalue = 18.3"] ;
608 -> 609 ;
610 [label="mse = -0.0\nsamples = 1\nvalue = 16.1"] ;
608 -> 610 ;
611 [label="X[0] <= 0.465\nmse = 2.433\nsamples = 18\nvalue = 20.111"] ;
607 -> 611 ;
612 [label="X[6] <= 2.445\nmse = 1.377\nsamples = 8\nvalue = 19.238"] ;
611 -> 612 ;
613 [label="X[4] <= 0.617\nmse = 0.182\nsamples = 5\nvalue = 20.02"] ;
612 -> 613 ;
614 [label="X[11] <= 13.72\nmse = 0.017\nsamples = 4\nvalue = 20.225"] ;
613 -> 614 ;
615 [label="mse = 0.0\nsamples = 2\nvalue = 20.1"] ;
614 -> 615 ;
616 [label="X[4] <= 0.55\nmse = 0.002\nsamples = 2\nvalue = 20.35"] ;
614 -> 616 ;
617 [label="mse = 0.0\nsamples = 1\nvalue = 20.4"] ;
616 -> 617 ;
618 [label="mse = -0.0\nsamples = 1\nvalue = 20.3"] ;
616 -> 618 ;
619 [label="mse = -0.0\nsamples = 1\nvalue = 19.2"] ;
613 -> 619 ;
620 [label="X[7] <= 5.5\nmse = 0.649\nsamples = 3\nvalue = 17.933"] ;
612 -> 620 ;
621 [label="X[0] <= 0.279\nmse = 0.01\nsamples = 2\nvalue = 18.5"] ;
620 -> 621 ;
622 [label="mse = 0.0\nsamples = 1\nvalue = 18.6"] ;
621 -> 622 ;
623 [label="mse = 0.0\nsamples = 1\nvalue = 18.4"] ;
621 -> 623 ;
624 [label="mse = -0.0\nsamples = 1\nvalue = 16.8"] ;
620 -> 624 ;
625 [label="X[5] <= 77.4\nmse = 2.179\nsamples = 10\nvalue = 20.81"] ;
611 -> 625 ;
626 [label="mse = 0.0\nsamples = 1\nvalue = 23.2"] ;
625 -> 626 ;
627 [label="X[11] <= 11.87\nmse = 1.716\nsamples = 9\nvalue = 20.544"] ;
625 -> 627 ;
628 [label="X[11] <= 10.705\nmse = 1.437\nsamples = 4\nvalue = 21.675"] ;
627 -> 628 ;
629 [label="X[0] <= 4.75\nmse = 0.09\nsamples = 2\nvalue = 20.5"] ;
628 -> 629 ;
630 [label="mse = 0.0\nsamples = 1\nvalue = 20.8"] ;
629 -> 630 ;
631 [label="mse = 0.0\nsamples = 1\nvalue = 20.2"] ;
629 -> 631 ;
632 [label="X[0] <= 2.896\nmse = 0.022\nsamples = 2\nvalue = 22.85"] ;
628 -> 632 ;
633 [label="mse = 0.0\nsamples = 1\nvalue = 23.0"] ;
632 -> 633 ;
634 [label="mse = -0.0\nsamples = 1\nvalue = 22.7"] ;
632 -> 634 ;
635 [label="X[5] <= 82.1\nmse = 0.098\nsamples = 5\nvalue = 19.64"] ;
627 -> 635 ;
636 [label="mse = 0.0\nsamples = 1\nvalue = 19.1"] ;
635 -> 636 ;
637 [label="X[11] <= 13.53\nmse = 0.032\nsamples = 4\nvalue = 19.775"] ;
635 -> 637 ;
638 [label="mse = 0.0\nsamples = 2\nvalue = 19.6"] ;
637 -> 638 ;
639 [label="X[11] <= 14.445\nmse = 0.003\nsamples = 2\nvalue = 19.95"] ;
637 -> 639 ;
640 [label="mse = 0.0\nsamples = 1\nvalue = 19.9"] ;
639 -> 640 ;
641 [label="mse = 0.0\nsamples = 1\nvalue = 20.0"] ;
639 -> 641 ;
642 [label="X[10] <= 364.455\nmse = 7.786\nsamples = 34\nvalue = 15.932"] ;
552 -> 642 ;
643 [label="X[6] <= 2.269\nmse = 1.267\nsamples = 15\nvalue = 13.98"] ;
642 -> 643 ;
644 [label="X[11] <= 17.24\nmse = 0.423\nsamples = 2\nvalue = 12.35"] ;
643 -> 644 ;
645 [label="mse = 0.0\nsamples = 1\nvalue = 11.7"] ;
644 -> 645 ;
646 [label="mse = 0.0\nsamples = 1\nvalue = 13.0"] ;
644 -> 646 ;
647 [label="X[10] <= 357.03\nmse = 0.925\nsamples = 13\nvalue = 14.231"] ;
643 -> 647 ;
648 [label="X[10] <= 5.09\nmse = 0.706\nsamples = 11\nvalue = 14.473"] ;
647 -> 648 ;
649 [label="X[0] <= 7.459\nmse = 0.003\nsamples = 2\nvalue = 13.45"] ;
648 -> 649 ;
650 [label="mse = 0.0\nsamples = 1\nvalue = 13.4"] ;
649 -> 650 ;
651 [label="mse = 0.0\nsamples = 1\nvalue = 13.5"] ;
649 -> 651 ;
652 [label="X[4] <= 0.648\nmse = 0.578\nsamples = 9\nvalue = 14.7"] ;
648 -> 652 ;
653 [label="X[6] <= 3.442\nmse = 0.202\nsamples = 3\nvalue = 14.167"] ;
652 -> 653 ;
654 [label="mse = 0.0\nsamples = 1\nvalue = 13.8"] ;
653 -> 654 ;
655 [label="X[6] <= 4.454\nmse = 0.203\nsamples = 2\nvalue = 14.35"] ;
653 -> 655 ;
656 [label="mse = 0.0\nsamples = 1\nvalue = 14.8"] ;
655 -> 656 ;
657 [label="mse = -0.0\nsamples = 1\nvalue = 13.9"] ;
655 -> 657 ;
658 [label="X[5] <= 88.95\nmse = 0.552\nsamples = 6\nvalue = 14.967"] ;
652 -> 658 ;
659 [label="X[10] <= 186.2\nmse = 0.116\nsamples = 3\nvalue = 14.433"] ;
658 -> 659 ;
660 [label="X[5] <= 87.2\nmse = 0.01\nsamples = 2\nvalue = 14.2"] ;
659 -> 660 ;
661 [label="mse = 0.0\nsamples = 1\nvalue = 14.1"] ;
660 -> 661 ;
662 [label="mse = 0.0\nsamples = 1\nvalue = 14.3"] ;
660 -> 662 ;
663 [label="mse = 0.0\nsamples = 1\nvalue = 14.9"] ;
659 -> 663 ;
664 [label="X[0] <= 5.127\nmse = 0.42\nsamples = 3\nvalue = 15.5"] ;
658 -> 664 ;
665 [label="mse = 0.0\nsamples = 1\nvalue = 16.4"] ;
664 -> 665 ;
666 [label="X[0] <= 7.477\nmse = 0.022\nsamples = 2\nvalue = 15.05"] ;
664 -> 666 ;
667 [label="mse = 0.0\nsamples = 1\nvalue = 15.2"] ;
666 -> 667 ;
668 [label="mse = -0.0\nsamples = 1\nvalue = 14.9"] ;
666 -> 668 ;
669 [label="X[5] <= 94.55\nmse = 0.04\nsamples = 2\nvalue = 12.9"] ;
647 -> 669 ;
670 [label="mse = 0.0\nsamples = 1\nvalue = 12.7"] ;
669 -> 670 ;
671 [label="mse = 0.0\nsamples = 1\nvalue = 13.1"] ;
669 -> 671 ;
672 [label="X[5] <= 93.25\nmse = 7.548\nsamples = 19\nvalue = 17.474"] ;
642 -> 672 ;
673 [label="X[6] <= 2.189\nmse = 4.268\nsamples = 11\nvalue = 18.964"] ;
672 -> 673 ;
674 [label="X[5] <= 87.7\nmse = 1.822\nsamples = 2\nvalue = 21.85"] ;
673 -> 674 ;
675 [label="mse = 0.0\nsamples = 1\nvalue = 23.2"] ;
674 -> 675 ;
676 [label="mse = -0.0\nsamples = 1\nvalue = 20.5"] ;
674 -> 676 ;
677 [label="X[7] <= 4.5\nmse = 2.548\nsamples = 9\nvalue = 18.322"] ;
673 -> 677 ;
678 [label="mse = 0.0\nsamples = 1\nvalue = 15.2"] ;
677 -> 678 ;
679 [label="X[4] <= 0.649\nmse = 1.496\nsamples = 8\nvalue = 18.712"] ;
677 -> 679 ;
680 [label="X[11] <= 15.325\nmse = 0.596\nsamples = 7\nvalue = 19.086"] ;
679 -> 680 ;
681 [label="mse = 0.0\nsamples = 1\nvalue = 17.5"] ;
680 -> 681 ;
682 [label="X[10] <= 390.18\nmse = 0.206\nsamples = 6\nvalue = 19.35"] ;
680 -> 682 ;
683 [label="X[0] <= 7.884\nmse = 0.09\nsamples = 2\nvalue = 18.8"] ;
682 -> 683 ;
684 [label="mse = 0.0\nsamples = 1\nvalue = 18.5"] ;
683 -> 684 ;
685 [label="mse = 0.0\nsamples = 1\nvalue = 19.1"] ;
683 -> 685 ;
686 [label="X[0] <= 0.277\nmse = 0.037\nsamples = 4\nvalue = 19.625"] ;
682 -> 686 ;
687 [label="X[0] <= 0.217\nmse = 0.002\nsamples = 2\nvalue = 19.45"] ;
686 -> 687 ;
688 [label="mse = 0.0\nsamples = 1\nvalue = 19.5"] ;
687 -> 688 ;
689 [label="mse = -0.0\nsamples = 1\nvalue = 19.4"] ;
687 -> 689 ;
690 [label="X[2] <= 13.895\nmse = 0.01\nsamples = 2\nvalue = 19.8"] ;
686 -> 690 ;
691 [label="mse = 0.0\nsamples = 1\nvalue = 19.7"] ;
690 -> 691 ;
692 [label="mse = 0.0\nsamples = 1\nvalue = 19.9"] ;
690 -> 692 ;
693 [label="mse = 0.0\nsamples = 1\nvalue = 16.1"] ;
679 -> 693 ;
694 [label="X[0] <= 0.561\nmse = 4.809\nsamples = 8\nvalue = 15.425"] ;
672 -> 694 ;
695 [label="mse = 0.0\nsamples = 1\nvalue = 19.5"] ;
694 -> 695 ;
696 [label="X[10] <= 376.22\nmse = 2.785\nsamples = 7\nvalue = 14.843"] ;
694 -> 696 ;
697 [label="mse = 0.0\nsamples = 1\nvalue = 17.8"] ;
696 -> 697 ;
698 [label="X[5] <= 95.1\nmse = 1.549\nsamples = 6\nvalue = 14.35"] ;
696 -> 698 ;
699 [label="mse = 0.0\nsamples = 1\nvalue = 16.7"] ;
698 -> 699 ;
700 [label="X[4] <= 0.727\nmse = 0.534\nsamples = 5\nvalue = 13.88"] ;
698 -> 700 ;
701 [label="X[11] <= 20.45\nmse = 0.155\nsamples = 4\nvalue = 14.2"] ;
700 -> 701 ;
702 [label="X[4] <= 0.664\nmse = 0.047\nsamples = 3\nvalue = 14.4"] ;
701 -> 702 ;
703 [label="X[4] <= 0.576\nmse = 0.002\nsamples = 2\nvalue = 14.55"] ;
702 -> 703 ;
704 [label="mse = 0.0\nsamples = 1\nvalue = 14.5"] ;
703 -> 704 ;
705 [label="mse = -0.0\nsamples = 1\nvalue = 14.6"] ;
703 -> 705 ;
706 [label="mse = 0.0\nsamples = 1\nvalue = 14.1"] ;
702 -> 706 ;
707 [label="mse = 0.0\nsamples = 1\nvalue = 13.6"] ;
701 -> 707 ;
708 [label="mse = -0.0\nsamples = 1\nvalue = 12.6"] ;
700 -> 708 ;
}
